[[{"bias":0.010726744617960193,"weights":[0.09639819792108534]},{"bias":-0.16465372444313725,"weights":[-0.0630388745638861]},{"bias":0.1964629289151657,"weights":[0.002314715956778096]},{"bias":-0.0830736089283823,"weights":[0.04269807527517688]},{"bias":0.08714968389526156,"weights":[0.060133958603748094]},{"bias":0.06904987104977672,"weights":[0.034398105666615914]},{"bias":-0.03769862801521465,"weights":[0.17220095847075012]},{"bias":0.1415984909911971,"weights":[0.016913251648442706]},{"bias":-0.13854525429372,"weights":[0.07631939081783257]},{"bias":-0.17546374822935668,"weights":[0.17640216633046563]},{"bias":0.08280635503229217,"weights":[-0.03358908363446292]},{"bias":0.07615222853345582,"weights":[0.042340106321419935]}],[{"bias":-0.09649613793588026,"weights":[-0.24786708561601414,-0.0880368034443431,-0.00866831807839176,0.012918406141564523,0.14130839639489728,0.5116509424806672,0.34034237928777555,0.013688546229158742,0.037911435346332914,0.13791409827424295,0.2230940672929596,0.2548110691847873]},{"bias":0.08473619891250118,"weights":[0.4747241263452314,0.1441694932838949,-0.041986257491708534,0.05318282874402156,0.07551239248541847,-0.9934754810180613,-0.2392543778282463,-0.06553939871610313,0.0986452802662097,-0.2552148521619953,-0.530783111761616,-0.19394970552794555]},{"bias":0.48509361388125893,"weights":[0.8229218810153597,0.16136846585992076,-0.05946384359002691,0.2631760873342377,-0.13266157589988106,-1.3719541575688465,-0.5545246376322234,-0.10180781510339373,0.07970641116332725,-0.2758486340156942,-0.9109498797059398,0.007132201826770534]},{"bias":-0.16129984294152663,"weights":[-0.29271692731363846,-0.035517947524177695,-0.03196551583053209,-0.16217841616865855,0.1878156033306712,0.6913553196344342,0.21837436110207614,0.16816305141102078,-0.09859711896929314,0.14006573332657957,0.7271122372905638,-0.016488068972428816]},{"bias":0.06478459846102702,"weights":[0.5231111066876538,-0.011851361072556889,0.12983988768783555,0.17680699773768208,-0.056574617401477616,-1.1229007526904147,-0.37664706859797475,0.031606806705521816,0.1569438861069991,-0.03549723021405192,-0.6032868184498249,-0.15457140534937958]},{"bias":-0.5190894029280231,"weights":[-0.6041876950923831,-0.2198746809376071,0.035970282913861285,-0.2853495654593461,0.17278038228360598,1.4800894270796794,0.36110506923122543,-0.12908789794239975,-0.2813099649932554,0.2903677090056024,0.9522801606575833,0.27105053240458515]},{"bias":0.565661110341997,"weights":[0.718616596477878,0.07489831997709642,0.10828882849276342,0.12634863315295725,-0.19654925777574442,-1.1317632372761872,-0.3967852752100729,-0.08614152982580942,0.12350409183444735,-0.24001568795754513,-0.8204509394004619,-0.30972578059051625]},{"bias":0.02712020865918139,"weights":[-0.12726241508515704,0.038411611728088144,0.13502149693963042,-0.16010572078568974,-0.04297373517799956,0.6231475527698657,0.07313679365223875,-0.07660803174019667,-0.12520402419422896,0.10714029162798752,0.44657591997701074,0.22699382778899507]},{"bias":-0.3043915986732545,"weights":[-0.39152355566505126,0.06662121923390038,-0.08109719883364619,0.004205338187975708,0.305742669502628,0.9107099344758941,0.10275011654053494,-0.022948908520107423,-0.16005445633206067,0.17759098974696985,0.7083230817596669,0.00936179695854328]},{"bias":0.33541117064861425,"weights":[0.5640443704588882,-0.055521981647591166,0.003276704130005726,0.3286299123478421,-0.17583961911667828,-1.0971204404545165,-0.34336733073542985,-0.13584291275984092,0.1568630773554356,-0.14831094301579464,-0.6793834207546731,-0.12515547810689182]},{"bias":0.30946944650317687,"weights":[0.31817332108541413,0.026112475843888816,-0.22270628225243494,0.06846970220161293,-0.16856143355294548,-0.8099139304587828,-0.36246541369302127,0.07183734288256627,-0.03066880802216789,0.039964559545701515,-0.4429849937298941,-0.13099772202084956]}],[{"bias":-0.10253336413112714,"weights":[0.7775258241955847,-1.3914499665862685,-2.216254148233947,1.247877367202551,-1.523893572232309,2.2922630890912097,-1.9525715931065504,0.8456056780983521,1.3797465401841649,-1.7259445625096423,-1.218287865593423]}]]