[[{"bias":0.1819373057414297,"weights":[-0.13168181914514632]},{"bias":0.025515682178396226,"weights":[0.01866832813655811]},{"bias":-0.04939973776936463,"weights":[-0.02046340852399392]},{"bias":-0.18684804950538478,"weights":[-0.09128311561872621]},{"bias":0.1508068738415007,"weights":[0.019890882288444434]},{"bias":0.10301423446716929,"weights":[0.042581373058283745]},{"bias":0.06890568942142516,"weights":[0.05404083322756292]},{"bias":0.08246052362521283,"weights":[-0.0053476407732426234]},{"bias":0.1552548938283268,"weights":[0.1265073476360577]},{"bias":-0.012428403659108328,"weights":[0.07390602997909379]},{"bias":0.11375981924426037,"weights":[0.009003278016547073]},{"bias":0.14750332290900808,"weights":[0.0968387180328727]}],[{"bias":-0.5487938993897186,"weights":[0.21532150681873238,-0.2841913430898786,0.6589753594670176,0.325871527900727,-0.045460865049446166,0.7128126992129387,0.07314679027371616,0.8256842649286639,0.11298494049250596,-0.1675972199192805,-0.24353645743911284,-0.05761620635274407]},{"bias":0.25620176175448106,"weights":[-0.1653088658247121,-0.008194817925940213,-0.21491814869999581,-0.1869763641199347,-0.3999877676060575,-0.29499121167868547,-0.1596747219123752,-0.39689829879434413,0.08470984656146528,0.026837972350614425,-0.05550822304505251,-0.04494380460836949]},{"bias":1.348312225896263,"weights":[-0.06022776094170373,0.500724189400975,-1.3295931451958387,-0.5092091725953748,-0.17997404777921455,-0.9060938720781594,-0.28549525204269366,-1.126412315814174,0.11755721911199973,0.2606924645766858,0.45348954896005683,0.16472373244621627]},{"bias":-0.45886262275737766,"weights":[0.02225155166587345,-0.02434868980151242,0.5572317950196777,0.391195585405939,0.025377076040034696,0.4175436586089335,0.3495102761770632,0.41023790217900463,0.04772516637013011,-0.17182724731523022,0.037494692704858994,-0.0024566840155125515]},{"bias":0.9478192041198192,"weights":[-0.1093137055744354,0.40272631367678413,-1.0952287043185591,-0.38709532069691843,-0.11866760870399887,-0.808718015963665,-0.19236841963858797,-0.9257690886198243,0.09515913388479125,0.3014972984257192,0.43728251050554645,-0.02212535273998957]},{"bias":0.17682646966577104,"weights":[-0.06197914603728381,-0.0502519334066244,-0.471731340421505,-0.20155508108851006,-0.009044267681175692,-0.44417610646405126,-0.06149923502786973,-0.4872417914190107,-0.23328209027802513,0.0988779584213781,0.12621185571939558,-0.0508717612641817]},{"bias":1.0832777755161245,"weights":[-0.15967142395965903,0.43123543899716904,-0.9542200068739961,-0.16515347548941472,-0.3436260722507203,-0.9396076296973803,-0.00902202418825412,-0.9554110897629974,0.04192600649745449,0.3164290957909553,0.16695308964461808,-0.03881518284521694]},{"bias":-0.5971994620824087,"weights":[-0.15774974065950842,-0.2298966405916816,0.5316967296783853,0.37537620429504903,0.3038039917860892,0.4739304087094707,0.07208063216272123,0.6468897478918975,0.04136454991878073,-0.008067045042131597,-0.020091625419617547,0.12613386941149018]},{"bias":-0.0008997894762411253,"weights":[0.1357062914532286,-0.17879114048076677,0.2759949909415813,0.3310009123042811,0.2809228595863879,0.2012735121874161,0.14859288234100146,0.30618468223819795,-0.06062567734809454,-0.12123412733649598,0.041284656014811474,0.22747221195400197]},{"bias":-0.38656595935861865,"weights":[0.01825506933367398,-0.045192585596421385,0.5627853482629818,0.30137669517480015,0.15684606421740116,0.41876598078728783,0.20357018870760846,0.4919315958666387,-0.08952346312835724,0.002294592865706166,-0.11658724630701497,0.12199199370720046]},{"bias":0.8385861137617907,"weights":[-0.05899705951346526,0.5043352697151584,-0.9551750946427428,-0.18198744237008385,-0.31074245240693565,-0.5594019881904722,0.02096437467996561,-0.897580731873597,-0.03326643661039993,0.047910678470941034,0.13538334853733439,-0.050672823290058414]}],[{"bias":-0.47784014791362456,"weights":[1.8269016027041025,-0.8655073399594899,-3.12116892294126,1.2147410832626795,-2.5457765458453356,-1.0379476749500787,-2.546176500203707,1.6143298981464322,0.8122249228128253,1.337039313779269,-2.1904363495138357]}]]