[[{"bias":-0.19483104849759325,"weights":[0.05998451301311353]},{"bias":0.03127955402180352,"weights":[-0.020997453336934313]},{"bias":-0.15839053266566935,"weights":[0.15358362698932398]},{"bias":-0.16984764442896091,"weights":[0.027149992763152053]},{"bias":-0.19009430633290583,"weights":[-0.11099742726390326]},{"bias":-0.1134126648958091,"weights":[-0.18614764025597685]},{"bias":0.006591430206916549,"weights":[0.09721325500274658]},{"bias":0.10034663706308616,"weights":[-0.030843325226015322]},{"bias":-0.16630064600385036,"weights":[-0.08646990604248446]},{"bias":-0.09619181973215563,"weights":[0.14284253280842213]},{"bias":0.015865767836002492,"weights":[0.051181408643117876]},{"bias":-0.03589046390730283,"weights":[0.10222768773837693]}],[{"bias":-0.40745976356274494,"weights":[0.05739395551248792,-0.23261356755662213,0.6588829706521558,0.4480109495075979,0.2271949697085964,-0.1174088010047151,0.5963489381990013,0.2579126744792618,-0.02684095474484537,0.3180776998159566,0.14959834458091173,0.14368213305447647]},{"bias":-0.5080883307898238,"weights":[-0.21518499572994743,-0.2573014777378897,0.909987932106947,0.8059992615074696,-0.04033737474166116,-0.2637122159901882,0.7569663034548256,0.42142122792390774,-0.3542855372369918,0.7826193451573051,0.041974207740567974,0.0641052452147123]},{"bias":0.23519091813572127,"weights":[0.11863305658107885,0.22392265191987626,-0.6821751198728429,-0.4568167241719669,-0.21341468725600027,-0.1692553807529883,-0.5784366292388633,-0.18886143106025646,0.1701834948126205,-0.43804314880562517,0.15706436026480003,-0.17003781641379054]},{"bias":0.34119586479036684,"weights":[0.27716504208590853,0.05752699403197468,-0.5902831796362475,-0.5194094439103673,-0.1502265644916105,-0.032804972735767594,-0.6381310716539352,-0.28121716448130507,-0.02997186683545577,-0.4062919966676043,-0.0765739799718388,-0.1318684206570674]},{"bias":0.6314255841939043,"weights":[0.27768549200868375,0.215923431290794,-0.887686293750413,-0.777790495458678,-0.009240482681270945,-0.18005154839708093,-0.6381949589784275,-0.439936763013536,0.29001022520688624,-0.5928681245334487,0.1127289781644014,-0.022110034892302753]},{"bias":0.08551007975139148,"weights":[0.1117384924170072,0.32199507067952476,-0.3296061378120076,-0.5971340898299927,-0.25354382781022844,-0.2157011352589278,-0.4667576260437236,-0.29621890707030984,0.17719088841947508,-0.21907099007027442,-0.18659154429663416,-0.0939452370774182]},{"bias":0.3617642029863731,"weights":[0.08728169968935233,0.415434204051084,-0.7732495257841495,-0.6876607154985481,0.0750276473937031,0.15950811365821665,-0.5483202192776175,-0.5197258723216183,0.25009773698784016,-0.6796788137230456,0.05449652251237092,-0.31681652498297985]},{"bias":0.21787260927797888,"weights":[0.012616915166712032,0.2117835932334711,-0.614657922795314,-0.35349964846506443,-0.056715891737370926,0.1428622554683663,-0.5839165488982432,-0.43648851350002166,0.1654167853460237,-0.29394044869703234,-0.14715955376440923,-0.22469164352662022]},{"bias":0.7701714825454633,"weights":[0.3661090554537563,0.33588025020452505,-1.1765712273498248,-0.8092613894452609,0.02731833225667573,0.23999039562370195,-0.8110469326625053,-0.620363411413245,0.4112991504187615,-0.7075576053622668,0.1816215111253947,-0.28423049836215314]},{"bias":0.2995946688784563,"weights":[0.06061137623482104,0.4194526919048731,-0.8125426281544713,-0.417033743103049,-0.1610992803667694,-0.022477494660571692,-0.5548056891479469,-0.5182805239908796,0.2787961995700755,-0.38308942289579045,0.022206462174683753,-0.10575132755965327]},{"bias":0.6378158986311243,"weights":[0.11368863143315348,0.42648184022272484,-0.7296946973486963,-0.6828617410965714,0.05856891315622236,-0.11188027935550465,-0.583942869452864,-0.5828124677178675,0.13565105872597058,-0.5368470920844353,0.04733937110856103,-0.30562037230102373]}],[{"bias":1.1104886224378183,"weights":[1.7552249671011444,2.730949239476581,-1.2119354215544753,-1.3816019610332009,-1.8788391427877493,-1.0843351507683534,-1.826887282357466,-1.28880367129058,-2.3839826408826625,-1.551250113886495,-1.8555954151954923]}]]