[[{"bias":0.07016075810525074,"weights":[0.1263861573058045]},{"bias":0.04592563927681059,"weights":[-0.09608191164003338]},{"bias":0.05462975524592989,"weights":[0.046311485474494235]},{"bias":-0.16616812203137316,"weights":[0.05764144199830412]},{"bias":0.16895505782511738,"weights":[-0.01950502845338828]},{"bias":0.03964079852862268,"weights":[-0.0701536326052967]},{"bias":0.015646640363022796,"weights":[0.13992274252796294]},{"bias":0.01658946219306162,"weights":[0.18129146537336233]},{"bias":0.12765200353210926,"weights":[-0.0992697588715517]},{"bias":-0.06006174443339837,"weights":[-0.14621210495820325]},{"bias":-0.05475575570627375,"weights":[-0.025549375052516254]},{"bias":0.19330234936220636,"weights":[-0.07624915845528797]}],[{"bias":0.966368335890875,"weights":[0.9844201762001556,-0.7370102255181638,-1.2285910801832478,-0.5389571265815367,-0.06569448313039024,0.23529748575867546,-0.5744636394535274,-0.914825300967803,-0.11426866040461221,0.39323182209866353,0.06179527486853489,-0.22118106839028678]},{"bias":-0.9712983104076492,"weights":[-0.8216182278588379,0.6210180643064711,1.1082783265331744,0.23630322611209195,0.09860340233683636,-0.11216528604856905,0.6268329675340106,0.7962842511916904,0.01375012951341924,-0.17084361005197538,0.05312119791073773,0.2677181302411679]},{"bias":-0.4082204248014329,"weights":[-0.21046699754911624,0.40131817173872475,0.5617967182554032,0.3512602783056084,0.057631893760861974,-0.07149511596881569,0.26098768502668807,0.554213528452078,-0.0004570696664329452,-0.17451590805884942,0.20908089309466746,0.29889978600732287]},{"bias":0.46565075724374255,"weights":[0.4004155617964767,-0.3076837906418739,-0.7093788839289538,-0.3230832674615999,-0.2764318673971302,-0.13934110032876912,-0.4647664333101423,-0.3660514414788163,-0.24467997437052968,0.12496922551670261,0.013029651157960646,-0.023700869698502797]},{"bias":0.34683425982216093,"weights":[0.48243177773855417,-0.41856152333691066,-0.7149953218757507,-0.15541277725472488,-0.1675586005135142,-0.22143555741259485,-0.24672940137501856,-0.5923432530338058,0.02781176835917877,0.1043031939820119,-0.0037010752834957194,-0.1982872069599978]},{"bias":0.10780031576976992,"weights":[0.14521980229400186,0.1470907030021131,0.0348225729425153,-0.2353924618830961,0.018733818586392437,0.03628697283577169,-0.16296932678603107,0.12605013061272222,-0.03839592373957504,-0.06592981005874807,0.13063344590041626,-0.12409080792792841]},{"bias":0.26015247854070883,"weights":[0.1475011437647973,-0.18361677354577813,-0.32303830530528743,-0.39447084107608826,-0.22999025349754085,-0.14310567396023105,-0.26857606039462384,-0.3670440563634525,-0.11580293572279149,0.1632366571246336,-0.11062465080689315,-0.19296190864041798]},{"bias":0.45558678018563703,"weights":[0.453999819828755,-0.4781761688433786,-0.5595871119225045,-0.17166653481274136,-0.047008451880781545,-0.23447157863784795,-0.30281289911361836,-0.4267090373545799,-0.2025226579667862,0.1945008418331561,-0.2642201044702886,-0.2404660935304025]},{"bias":0.6231373359146221,"weights":[0.7616419505166003,-0.6042938244451818,-1.0833709685234965,-0.44560500622728677,-0.10912482714163216,-0.07038118615684082,-0.24569016372468996,-0.6726470461960863,-0.12093670196388293,0.21242452385406965,0.20903157261767424,-0.18594609717131647]},{"bias":0.6882024585709462,"weights":[0.5646966464155156,-0.6566053287152199,-0.8670206600336119,-0.2868853485814609,0.05933685805334517,-0.037914580512563155,-0.48704403770948057,-0.7078988207402088,-0.053820990897630525,0.16162385909027677,-0.051895377063057975,-0.12329178570926409]},{"bias":0.02725907201492411,"weights":[-0.010677199343753567,0.2454666189820782,0.2338581531631362,0.2311065328803965,0.10487369372130528,0.2460112019545434,0.006754339512551615,0.20329973444313015,0.2208572519974188,-0.023763701459182406,0.1703086346717703,0.2446827560820846]}],[{"bias":0.4697771482601959,"weights":[-2.7769994480521727,2.7164985025373243,1.5850809597947135,-1.6460234808574339,-1.480739161828737,0.0709287494728272,-0.8845327951287103,-1.374542204544561,-2.2207471221598425,-2.0730945217325387,0.8615128932629346]}]]