[[{"bias":0.10798688282506702,"weights":[-0.1730555758718574]},{"bias":0.11843607439397935,"weights":[-0.16469391395402466]},{"bias":-0.03118243742178403,"weights":[-0.11132483962275348]},{"bias":0.02629378936770177,"weights":[0.09928352082675945]},{"bias":0.12892722356862685,"weights":[0.015508339829840512]},{"bias":-0.13340102828608646,"weights":[0.11269662954228238]},{"bias":0.03720665064003023,"weights":[0.14730057966560894]},{"bias":0.11129948954704344,"weights":[0.13401975298330282]},{"bias":-0.09558396080655483,"weights":[0.15495631750029376]},{"bias":0.12472371208615912,"weights":[-0.024364589686072247]},{"bias":-0.013887016321536716,"weights":[0.0584136659977329]},{"bias":0.06988236795740316,"weights":[-0.01633146122434867]}],[{"bias":0.15560846638214326,"weights":[0.16183873107439828,-0.25047108826944553,-0.06982199023591341,-0.24880709850013105,-0.3836106410968505,-0.33038725222776133,-0.2640665546514578,-0.227996176803571,-0.004586733028297756,-0.0020570110650223673,-0.35760283974064716,-0.09005508706065887]},{"bias":0.15619920342323856,"weights":[-0.08074293607686292,-0.2213363241185031,0.03929684863233509,-0.09822427926282995,-0.44253443044537966,-0.3229403389640567,-0.18499421146567335,-0.01576022528786779,-0.27382622673770074,0.07941198312937461,-0.42498572068711626,-0.12963183999227906]},{"bias":0.6917381977602173,"weights":[0.08442219204029916,-0.20218876670211985,0.42166885658483094,0.07636422950322456,-0.5943373950569951,-1.4753291148098533,-0.5410993221661137,-0.4888972532742721,-0.16950234477852186,0.22431597814450568,-0.26122874615697883,0.2583280947036871]},{"bias":0.20323265952732933,"weights":[0.12002598639203418,-0.10968324404260459,0.16348058116516218,-0.15229304123896215,-0.4833947714531003,-0.6986729001668339,-0.36755194925642276,-0.29410864056283426,-0.2642799529464245,0.13574469103986816,-0.22409826225998655,0.12483057345618863]},{"bias":0.5566569650936798,"weights":[-0.003937360693249671,-0.24008899908265804,0.49981723390787847,0.14072369764975343,-0.5659554396061789,-1.3470529829674271,-0.3199708875853906,-0.5250013253081207,-0.08597989152360765,0.2418016762070246,-0.5243937272775503,0.1408245821378174]},{"bias":0.5033278354233364,"weights":[0.09233051645940739,-0.1751673168653061,0.13320646711391246,0.08868523138771862,-0.5312404990520612,-0.8976280532605773,-0.3771198570566267,-0.2537516595757464,-0.23493547363229236,0.09752805929852876,-0.41577651442707025,0.05313919350793584]},{"bias":0.3180477236785627,"weights":[0.101618662905211,-0.30415711998954353,0.2413943196415772,0.037501068367597486,-0.6599156973972322,-1.142779189649949,-0.4835014869900553,-0.46551526901146906,-0.2724008441700175,0.44404001711044944,-0.16833902774291434,0.36302884251291684]},{"bias":0.2493468718433818,"weights":[-0.1464505920827812,-0.06864126631922811,0.2114585223508469,0.013412725345638277,-0.4759370710204634,-0.9270929576355218,-0.24677528015643505,-0.24739073046640075,-0.1479396139378464,0.1227010170451643,-0.2814064349409792,-0.01629877116075483]},{"bias":0.000036725799211006435,"weights":[-0.1741207464677672,-0.050530447763202105,0.028172764913483347,-0.11985446947987234,-0.4895525732876905,-0.6636226901482367,-0.3279922993724891,-0.36195881034364313,0.021444164645214918,0.1997043912311323,-0.13702034735637356,0.149858925911097]},{"bias":-0.4444694965300366,"weights":[0.1430175335504113,0.10715221085879567,-0.4188889465342828,-0.0691634209718025,0.3727476600834489,1.2165829302157758,0.2816191323968583,0.42299086495262916,0.1929501594334463,-0.23347276419348023,0.5207479804142009,-0.07455570216524446]},{"bias":-0.41997818583541374,"weights":[0.1172604442614306,0.16973821925671798,-0.1780153657350011,-0.012544950319515276,0.6012044072682722,1.3775285861531812,0.2192971332356861,0.494468773547784,-0.13086532837649417,-0.4520970576458177,0.4273043002172086,-0.1566558420248301]}],[{"bias":0.4563030785863756,"weights":[-0.7488289378594399,-0.6598374268222865,-2.189452378574692,-1.117278459435383,-2.0491391659508045,-1.5499730084298433,-1.8498774544586336,-1.1997770813539386,-0.903490502558482,2.320584820922093,2.513590783319619]}]]