[[{"bias":0.10044277366210475,"weights":[0.08401003763966558]},{"bias":-0.10184305691652203,"weights":[-0.010240837554359311]},{"bias":-0.18718861019241206,"weights":[0.12964495427942657]},{"bias":-0.059395489057951334,"weights":[-0.1514380228292711]},{"bias":-0.026627035184255188,"weights":[-0.016198530104050063]},{"bias":0.11689735779901556,"weights":[-0.12227786081033108]},{"bias":0.18813790390525503,"weights":[0.02043129310336128]},{"bias":-0.15797359768921038,"weights":[-0.02905382477993887]},{"bias":-0.18299986613682098,"weights":[-0.16547276289327595]},{"bias":0.07043597242660021,"weights":[0.1960336373589418]},{"bias":-0.042659955144341316,"weights":[0.010146623155382783]},{"bias":-0.0764936060440462,"weights":[0.14277482237080585]}],[{"bias":0.024675227502480482,"weights":[-0.024781531110790848,0.10454227683297669,0.3950037375769615,0.11069464758302607,0.21457314787305787,0.2449688441179375,0.28875524309903333,0.07110409514409384,0.0895651115779015,0.27598658764914313,0.021139289879473874,0.1356476003042033]},{"bias":-0.2303404214505676,"weights":[0.1425521403910246,-0.05620950932525302,0.6818699199063261,0.2634091512680568,-0.10316571385300187,0.1347533797195385,0.27556113979800917,0.4789605290308217,-0.1155775596585159,0.18635969781645056,0.38172454678048734,0.13563465243635198]},{"bias":-0.5015750699101351,"weights":[0.10774220312065351,-0.017381375575290344,0.33084843018081755,0.16232714284599364,0.21962621467512822,0.49137903375592323,0.12469544756052041,0.41569521110221846,-0.19199025179595033,0.39183532914835856,0.19658780116472732,0.47758683386777095]},{"bias":0.753907485253309,"weights":[-0.36015408113377034,0.09812959277583881,-0.4258271743045977,-0.14038827513839813,-0.12279379182000076,-0.3014083572557135,-0.3100401204529385,-0.540967149206138,0.05230404307580047,-0.4378690367590603,-0.3183494369613484,-0.2683184838485543]},{"bias":-0.01703132966285884,"weights":[0.009798273803009785,0.07725390849195228,-0.5465059960350063,-0.051411993247603746,0.07527478301634448,-0.1667737893141442,-0.30030692056915076,-0.37510304059410104,0.1104387833982434,-0.15150671398793228,-0.22455424235828936,-0.33897213372143203]},{"bias":0.12243186590063926,"weights":[0.040128234847816344,-0.04254471649849361,-0.18134774652688734,-0.17630998339370788,-0.3030447659256758,-0.24639926243115326,-0.40797300723591795,-0.08722410405689447,-0.03716816505694722,-0.12128599904295384,-0.14520677177586497,-0.09508247034699217]},{"bias":0.7224502654882511,"weights":[-0.1905769965257802,-0.007109183038730219,-0.4376567730327805,-0.13207092180136823,-0.23417526621272208,-0.34833321534875267,-0.41749051030293566,-0.5251333474258926,0.19841718099160796,-0.303218542425094,-0.07276652380156667,-0.45715177952537817]},{"bias":0.9507740023165958,"weights":[-0.07785609923114359,0.22483334086865583,-0.7196685298216781,-0.0612039908954655,0.006063775897476389,-0.5211105821999128,-0.48657634446392706,-0.6441970478172527,0.33432596029697786,-0.37251743835860507,-0.16784870862954204,-0.5635401807263428]},{"bias":-0.611201339671288,"weights":[0.10508878307544646,-0.0132035581544751,0.5181668220582423,0.01069572196400153,0.05860891099595186,0.5020585620444611,0.5199496381731726,0.4899480502264921,-0.25850942636168983,0.33850947221302397,0.2675937707671006,0.21632020481242129]},{"bias":1.0740025989098543,"weights":[-0.148797585079111,0.0747893459780945,-1.0473100292261952,0.22311176617569609,0.10585077284793254,-0.5317547880289021,-0.5421798341734323,-0.615634495767213,0.35171864386261326,-0.5386429396950625,-0.1548413142028944,-0.5122115060771447]},{"bias":0.2771876717204069,"weights":[-0.08418207829445609,-0.02609339336810402,-0.5937461168625322,0.020476604537545722,0.07691192324112549,-0.39116474417767333,-0.5027453511334663,-0.30790402760472185,0.2073458000195138,-0.15077523716155616,-0.17593629079772408,-0.46585230736033023]}],[{"bias":-0.2162577250855959,"weights":[0.7434389274048664,1.4246827025252058,1.5310142833572933,-1.7517717890801734,-0.9896458428277108,-0.6595429635942365,-1.8007569000733799,-2.4587815929739745,1.7171635941278758,-2.6413464387287853,-1.5091428422689892]}]]