[[{"bias":-0.1887144684644266,"weights":[-0.13505897429688174]},{"bias":0.020561328839397486,"weights":[-0.17543061474493335]},{"bias":0.14091819623196022,"weights":[-0.0791003451772495]},{"bias":-0.03916419957154177,"weights":[0.1955537998925273]},{"bias":-0.10686910890942994,"weights":[0.15631050307701022]},{"bias":-0.041267287545870085,"weights":[-0.004969214850963688]},{"bias":0.1772046627807381,"weights":[-0.012349320493255073]},{"bias":-0.13615673125608688,"weights":[-0.0455776535534497]},{"bias":0.011623538705223868,"weights":[-0.024791208161177802]},{"bias":0.1596594808643756,"weights":[-0.15291298991741212]},{"bias":-0.11478414481502225,"weights":[0.11753668447395071]},{"bias":-0.12163925855167497,"weights":[-0.05386310098891586]}],[{"bias":0.4943653406752101,"weights":[-0.2050999761407612,-0.07004556958402414,-1.127878117287084,-0.13265460840624585,0.16480769650191956,0.04946991925191877,-0.38026637627514775,0.1278709905364563,-0.2148976091455663,-0.2031146791148142,-0.0023014689212116257,-0.5250706806911422]},{"bias":-0.007783862264934358,"weights":[0.23325544526983796,0.0006188913974237568,0.4650618829323079,0.2792759124991062,0.11365046087477054,0.03743939947311064,0.2375172340613365,0.25474117473739183,0.03616535329356376,0.10962474738414857,0.16979637419984547,0.21923700886531933]},{"bias":0.17973410020363526,"weights":[-0.22359426567247773,-0.24661996034874964,-0.9366809097093761,-0.027688432371704264,-0.16986260533242864,0.05661125438878715,-0.10575058295507585,-0.14020174732296395,-0.13836044253739058,0.09908919301819032,-0.22029564890980852,-0.3430431190365111]},{"bias":-0.3631547937198416,"weights":[0.1641743436133791,0.1417828816303386,0.6898659130303861,0.24017769850100662,0.017880496815232697,-0.17018004889402452,0.15572805416102783,0.3058199237008252,0.17625708643276444,0.192156730033629,0.15432668526391508,0.3615994837210802]},{"bias":0.46783013251497796,"weights":[-0.05002548837226822,-0.08172333706316316,-1.1123534991297583,-0.20387157298750835,-0.0502573784725719,0.23979928649235457,-0.40991163644387213,-0.18113188224341242,-0.2279870097478508,0.07841996542603454,-0.24094008239099904,-0.1895197151005745]},{"bias":-0.707698660179859,"weights":[0.17387651858489503,0.2019119533165321,1.2364344872206903,0.08245559267324883,0.02791883456180517,-0.06384851657206898,0.36353442000724995,0.053825609962358655,0.14338665005190027,0.02031800596484534,-0.004514328869144922,0.5707640736323992]},{"bias":0.8508746407424121,"weights":[-0.22449875852793433,-0.039911817406852935,-1.4264615910030949,-0.4091851265773729,0.02866126289582029,0.29437215023909546,-0.49438348400352694,-0.19590913531847798,0.14613814136129705,-0.0390689106504219,-0.05330770307807019,-0.4631343462850588]},{"bias":0.9871261524683349,"weights":[-0.2923721651455953,-0.1865685082618732,-1.3533065734934142,-0.36171280798866934,0.32064186030045594,0.20487543356553625,-0.5259999982777871,0.042307613517338256,-0.19861867671948302,-0.1287215844585775,0.009070443902744255,-0.7220267237594796]},{"bias":0.293025295425503,"weights":[-0.06358665117332979,-0.2880354607489014,-1.045018649988011,-0.09728922486594284,0.1233641177181156,-0.154373983540353,-0.22889735961443583,0.08093898508725678,-0.03203014608587025,-0.19150676524988378,0.05044792303300279,-0.5822717295988927]},{"bias":0.4645843130329737,"weights":[-0.25636833577258994,-0.05422913432448217,-0.9705462549997367,-0.42336054333948486,0.14816746671570083,-0.01620427759365126,-0.41621819330536675,-0.20049937697482817,0.02472478869343308,-0.10281353030027976,0.032529667672800154,-0.3085603918078551]},{"bias":0.4330189323596047,"weights":[-0.1538327231226962,-0.007144278243834123,-1.0010110752519328,-0.1250960466760906,0.1305740289829141,0.21540429964528454,-0.2958943753634794,-0.1586334025034991,-0.06567952251835375,-0.09362704287216281,-0.2504327992249521,-0.5878667395315946]}],[{"bias":0.4558735078623111,"weights":[-1.7295740281023695,1.2448346798773415,-1.3033995138998942,1.451498889978182,-1.6382484261437442,2.3920398630215116,-2.215765773245545,-2.336354502810756,-1.5735967059111218,-1.5243348646287094,-1.6372833001443745]}]]