[[{"bias":0.16817051032000246,"weights":[-0.09283821380678657]},{"bias":-0.17011877486943813,"weights":[-0.168919793821601]},{"bias":-0.040107189628123846,"weights":[-0.02698532939226919]},{"bias":-0.11305510072968872,"weights":[0.04915284377225779]},{"bias":0.1897535067066599,"weights":[-0.13514298355342264]},{"bias":0.04739463149279252,"weights":[0.013113352581325621]},{"bias":0.02208806412560832,"weights":[-0.15586014854012006]},{"bias":0.15632413165094716,"weights":[-0.10469615504480397]},{"bias":-0.04522185438772289,"weights":[-0.14338684119752118]},{"bias":0.03649496576052291,"weights":[-0.1144404531760615]},{"bias":0.02976923269965051,"weights":[0.07808811278480315]},{"bias":0.16524208055270756,"weights":[0.06908247103844811]}],[{"bias":0.7841848528721312,"weights":[-0.10781785284908493,0.1727949724688134,-0.2707528374999092,-0.55034262103971,-0.14155921018114145,0.2627403845569965,0.07936321492263299,-0.49218812480178825,-0.6031462502550502,0.0714414947830536,-0.9094471878691155,-0.2704190474733687]},{"bias":0.0580377908890404,"weights":[-0.014510619911453387,-0.1428473059668696,0.26688417947595444,0.03958520303355004,0.33154924973189503,0.09873565694846001,0.14913703479100426,0.17072557199108082,0.34301849719276933,-0.03969054640833332,0.5131424787481927,0.18767859433695327]},{"bias":0.4813150996862698,"weights":[-0.05728534071060951,0.08290545461550823,-0.33630876775237173,-0.38595214921818105,-0.1656706390676272,0.029435073953405135,-0.10069014806713061,-0.3528843289652006,-0.33549939052997424,-0.14596736544809122,-0.43963175423730816,-0.32539231400239765]},{"bias":-0.4552956555048282,"weights":[-0.01475365568498816,0.007631316058613944,0.2221704273715406,0.09013607484718249,0.37068906977084704,-0.2610954178251815,0.10348477663965946,0.5476391559180728,0.5543108370839246,-0.002677682857544353,0.7337785244950635,0.0919542375606278]},{"bias":0.7657115594506363,"weights":[0.16699464893641666,-0.09275977390422854,0.10275686953529543,-0.46836411520764987,-0.12987023590293906,0.3714965274105125,0.11476946687643573,-0.786990985897776,-0.40953448583455504,-0.11196689145966784,-1.0329579832197335,-0.49706769153072783]},{"bias":0.19195306651404015,"weights":[0.005841038425377482,0.1747537466651435,0.0785726536871418,-0.23603047699371965,-0.28105394076966733,-0.07917265507538837,-0.14682735992588386,-0.39276521139192316,-0.23074107837411356,-0.29072984573091226,-0.6242914395022359,-0.1163746324719256]},{"bias":0.3327487204345247,"weights":[0.09074982682745378,-0.07781877392785205,-0.1528731014191919,-0.1997360290086739,-0.2616435601376513,-0.0041456960697664426,0.03384880907743405,-0.3079749796776645,-0.3346115381591075,-0.24409254997214366,-0.4518778410027431,-0.39198429882384406]},{"bias":0.9024743461098094,"weights":[-0.08058024853748869,-0.026532155268673165,-0.23480220421008202,-0.4593598351651701,-0.44027790063703415,0.33497941586400287,0.24401099359511302,-0.7829962117484411,-0.4452823594543996,0.19790674828963714,-1.0730242727139137,-0.215992230078794]},{"bias":0.9456669049037244,"weights":[-0.09862178936290343,0.16586235191936835,0.07960146093816606,-0.436770029771589,-0.207490890395414,0.4865949315804676,0.000659646099510844,-0.8504134049520343,-0.6623047609896652,0.005726097474773312,-1.116102561486615,-0.33649234715523474]},{"bias":0.061299870947962964,"weights":[0.1044330848982577,-0.18185002044007859,-0.27575245508668716,-0.2833920603075243,-0.195486171018744,-0.03909151503180717,0.006172589595959957,-0.11056639568663729,-0.2467212889628699,-0.016996685001060052,-0.5752724122926807,-0.2081871983899069]},{"bias":-0.4137574902160547,"weights":[0.09486033508547985,-0.04299908608387967,0.22897699050648174,0.44235894599999454,0.23936207715208038,-0.2538687475027892,0.048320203594357625,0.46034413701616844,0.41979542457897157,-0.20992429298810703,0.8477014659121358,0.18934596211287527]}],[{"bias":0.26289729348958435,"weights":[-1.9452773526482896,1.1281020042821022,-1.3552822909467823,1.7038830011035215,-2.067065078251527,-1.0900852243480346,-1.0568625610673688,-2.2253179751649905,-2.4099416817257957,-0.8435142032673425,2.0091188425450817]}]]