[[{"bias":-0.07496876748255624,"weights":[-0.008525950864667647]},{"bias":-0.09362802865374463,"weights":[-0.1334571039385103]},{"bias":-0.06874602033331909,"weights":[-0.1177325685423945]},{"bias":-0.19264151247314515,"weights":[0.04168974353764679]},{"bias":0.16898547905898126,"weights":[-0.01882998341505085]},{"bias":0.121548068816547,"weights":[0.07780763332799567]},{"bias":-0.17000891326769674,"weights":[-0.015049598342198323]},{"bias":-0.15050844046544337,"weights":[-0.023933281694047015]},{"bias":0.10124204934565029,"weights":[-0.17436586751552874]},{"bias":-0.1270685616770864,"weights":[0.08586579092321012]},{"bias":0.08241657718813727,"weights":[-0.15184445552904924]},{"bias":-0.16961148586251396,"weights":[-0.15901092950040852]}],[{"bias":-0.07028317765241064,"weights":[0.08458778080361161,0.192372064522874,-0.14052504194978607,-0.096345596247093,-0.36854808437979286,0.09472324881281466,-0.46483635221634767,-0.2935451507839867,-0.16449506586616566,0.1122947468225342,-0.11261450155369974,-0.14979862436181793]},{"bias":0.18141528705034876,"weights":[-0.004578034915937091,0.4179623156080163,-0.31765868968788996,0.007910714112613335,-0.5071909631793877,0.08719488644137803,-0.6893392244579731,-0.46475759619695717,0.15737855694049102,0.4161985499241634,0.2255804044032824,-0.6217776438331588]},{"bias":0.19460141867418046,"weights":[-0.21707372012711793,0.22397427640904335,-0.29599397310823333,-0.017465554175400466,-0.23365879986001112,-0.11340485146140028,-0.40040441012214845,-0.5710128628012854,-0.10208273500589989,0.36369407031958007,0.09340308081194691,-0.44603172666345153]},{"bias":0.1815458587329627,"weights":[-0.0815262089870498,0.06696745344664105,-0.453676358746023,-0.216782850795443,-0.3793821362886332,-0.09989426133034777,-0.6905351280542675,-0.34758234099745944,0.1421536663019286,0.2913501007690318,0.1818713185604911,-0.19566135816032995]},{"bias":-0.5827328233986382,"weights":[0.19325593043751926,-0.3834848386626094,0.5225643921340211,0.16270917789556566,0.6143650992584941,-0.4719740433861624,0.9127614453239079,0.711495812962505,-0.16949727148751717,-0.5190278223125406,-0.3918989548619966,0.7074659360373269]},{"bias":-0.4830229883584152,"weights":[0.1170481992402536,-0.1803252429778746,0.4785301009194682,0.10445400027282176,0.614709125975652,-0.23016373827835965,0.6429193739693209,0.4750891700483625,0.15236351588221952,-0.3527711331943177,-0.26075651259035004,0.4056074102942743]},{"bias":1.0613581914439996,"weights":[-0.17059281289341724,0.5933399539763416,-0.9972195520352207,0.010513823654792948,-0.8626251247495687,0.5343868955454073,-1.177333656074565,-1.0152112082337978,0.09918123887869047,0.7321136357587079,0.4700955799137359,-0.5659340082676498]},{"bias":0.694832019407451,"weights":[0.06710983113401894,0.13087182312690843,-0.4883223985095224,-0.2200028769959675,-0.38678391046022187,0.1660786932677108,-0.6382890502641941,-0.5683862205826642,-0.026208066164095913,0.39757335171473823,0.14796858066131172,-0.6508973567706317]},{"bias":0.5123000096591794,"weights":[-0.03223931751703588,0.39437292431178284,-0.5803910280289238,-0.18791657985786137,-0.40128436689179064,0.11378353525309062,-0.6412721050738822,-0.4452357974668446,0.182106570183485,0.6392982584165365,0.006575589663542948,-0.6799887393774812]},{"bias":0.32507028972129387,"weights":[-0.1562839599775688,0.2007819519207404,-0.5622042368347383,-0.10974255553747357,-0.46735584118291235,0.2226197571372892,-0.7912935685067574,-0.5766332329263295,0.16278524213218598,0.4106673556815792,0.16887797880923747,-0.2614409342992715]},{"bias":-0.280166999558932,"weights":[-0.088188458565947,-0.0377364909208068,0.4917581981708776,0.10050293499866172,0.3203340656477983,0.06206436590993244,0.37481035085804765,0.3498909194463,0.0600910015623334,-0.4070975391941912,0.0768540787052253,0.5017177120919211]}],[{"bias":0.12144259159800753,"weights":[-0.6811869905447242,-1.4217785815611859,-1.0631111961499764,-1.2063764590159125,2.5031646766437885,1.8104174847102426,-2.9934790635114386,-1.7985823931501417,-1.816548741762879,-1.5921469393166439,1.5103123938719236]}]]