[[{"bias":0.08551527240986856,"weights":[-0.16543830643829294]},{"bias":-0.1023701130137412,"weights":[-0.016938724116371512]},{"bias":0.1465501948040166,"weights":[0.04383245385124185]},{"bias":-0.002383363440582903,"weights":[0.18677158131247634]},{"bias":-0.04676641636615164,"weights":[-0.11139027194433818]},{"bias":-0.004114359122741107,"weights":[0.03661715224586795]},{"bias":0.1429336674877722,"weights":[0.06032075359585348]},{"bias":0.07475019197212546,"weights":[0.06331538567756578]},{"bias":-0.12739061348132577,"weights":[-0.059031830345838365]},{"bias":-0.02236968230319905,"weights":[-0.160562611643833]},{"bias":-0.0873234690041465,"weights":[-0.03691771676939756]},{"bias":0.1776296832699809,"weights":[-0.11645872916291192]}],[{"bias":0.40257968626967167,"weights":[0.3905548138288929,-0.22670515848511796,-0.380313713514126,-0.2808993064502814,-0.3331890908085651,-0.7586682576105952,0.4014543418712635,-0.6239941487439234,0.057378162483238154,0.5213093409688028,-0.31200301782076745,-0.506085885505563]},{"bias":-0.3028792768775129,"weights":[-0.2947816169424944,-0.015648245447938525,0.18196342631734133,0.22221107656514769,0.5057274213081234,0.6643145187647915,-0.18136225176490836,0.5149057451317085,-0.1101948357984649,-0.042552774553159416,0.4167173768972858,0.16092671320051208]},{"bias":0.9093499589065019,"weights":[0.6271340900612603,0.06661428383699763,-0.5528153448211093,-0.33341080717579535,-0.5883922556818596,-0.9903593570423501,0.5033570346585206,-1.2865316036061585,0.11885624417056731,0.879627171617432,-0.3203421946236401,-0.7530815881500197]},{"bias":-0.11846694629632272,"weights":[0.021862144857129794,-0.03646445597936704,0.06871439544087898,0.36244796786374556,0.16894445826987115,0.23258872501927516,-0.09561217293856965,0.5431763302050966,0.03537973670098661,0.026759837064761163,0.178722178677137,0.3745449897781837]},{"bias":-0.018454457189395024,"weights":[-0.007717436559425848,-0.02900308853357337,-0.11405606935812239,-0.19792451732166833,-0.39063026714282945,-0.3524982886259244,-0.06852041472562972,-0.08715349012891305,-0.09918129537197073,0.014023233389871948,-0.04971960650629181,-0.19563569498438996]},{"bias":-0.17251868579379487,"weights":[-0.20942158896542973,0.14055799713563655,0.43700910998854964,0.14181976660772125,0.21448629880255804,0.406933798163685,0.0961558000372362,0.2682346912996512,0.1260899512949041,-0.12003796422929452,0.1842630867168637,0.16283698045806042]},{"bias":-0.29406245542058734,"weights":[-0.032583206620917744,-0.009311428362713882,0.43876682909643666,0.2828371326473689,0.1466029694913584,0.6347956437873105,-0.23367210086878393,0.39550719501618736,0.20317336127296948,-0.31904928119635895,0.15623536554036543,0.3714079484305179]},{"bias":0.6641004037815044,"weights":[0.4523964947491486,0.1011956536309332,-0.5830396072782568,-0.128840047177464,-0.5953677496206723,-0.9161724891676459,0.45437783971529333,-1.117268190853948,0.3214570543028651,0.4194223927523659,-0.18635641219942944,-0.5172721641138288]},{"bias":0.3704848602002565,"weights":[-0.04186366331034482,-0.21368081103612688,-0.13041219683976724,-0.05680464626226817,-0.1760406284627289,-0.5338014270206535,-0.017760058060319012,-0.48579647884865224,-0.019024375274998985,-0.022253934030187307,-0.3244328200458531,-0.28157505500469804]},{"bias":0.5022392274910819,"weights":[0.43864542768427356,-0.13781881400591423,-0.5804927302550924,-0.31776708909895773,-0.42952855740234397,-0.7120356128246802,0.3124482862299145,-0.7817279853286304,0.22180743996662805,0.4332714023618065,-0.07285066097105627,-0.5062631552681935]},{"bias":0.3823689671657053,"weights":[0.3093083208483513,-0.2444791898694294,-0.4023461577968876,-0.0712576597386228,-0.45033653129518947,-0.4784879981356187,0.14244769824179992,-0.6357522996002704,0.0016585823247151237,0.08814266390645693,-0.09074641528821342,-0.29833924794031785]}],[{"bias":0.5476239348131986,"weights":[-1.7924035485284513,1.5446003171612488,-2.9701178462947317,1.0774800015974606,-0.5551787724367334,1.0155753480966037,1.3873022072586134,-2.3889219132945576,-1.074375403853877,-2.031459142689425,-1.3482273327868097]}]]