[[{"bias":-0.10991093358215204,"weights":[0.13269858258209777]},{"bias":0.18865551346597148,"weights":[0.14132682036566308]},{"bias":0.14565739523287896,"weights":[-0.19335350959772626]},{"bias":-0.1990847509938284,"weights":[-0.04034735736185127]},{"bias":-0.16562868660364727,"weights":[-0.11998713424687724]},{"bias":0.016451124448515847,"weights":[0.10983598030894542]},{"bias":0.022300701430264885,"weights":[-0.1950810782557169]},{"bias":0.17630436517211406,"weights":[-0.17990670704429298]},{"bias":-0.1363191217437409,"weights":[0.13081215387335593]},{"bias":-0.09996249505036357,"weights":[-0.0069012911032229896]},{"bias":0.18703109166783122,"weights":[-0.02316150116301144]},{"bias":-0.08684736139094787,"weights":[0.05343721653953831]}],[{"bias":-0.1618804013389931,"weights":[-0.047681568505838504,-0.08030313537104487,-0.07882370879133913,0.051257595938008806,0.10652170214189523,-0.17355540551436716,-0.31632382580184965,-0.15375946582522623,-0.00953709806727139,0.11100130191202555,-0.21462971405485418,-0.2561955997361775]},{"bias":-0.2912021128827049,"weights":[-0.26136918969199835,-0.46408595887901344,0.03795934200850967,0.5111162208512707,0.28306459613594687,0.4673580183490607,0.46857188661368077,0.2826127830363646,-0.10377130684875079,-0.18341071226957412,0.11678405486987621,0.5085882735048494]},{"bias":0.30626547259811016,"weights":[0.4564238533071952,0.8491476678083789,-0.28976072496590843,-0.26680288096097204,-0.09641796123065542,-0.9288103005671107,-0.5704080832345078,-0.49522969507555564,-0.0018001658836162802,0.44686929353170335,-0.4582530528043902,-0.3926504255016698]},{"bias":-0.0787854277454835,"weights":[-0.10986904609476518,0.3462320168936742,-0.03167372186509156,-0.3634944428748609,0.07523004076206266,-0.4589364687993079,-0.3186202249923398,-0.31461897986544474,0.1192958315967694,0.18974314947629012,-0.25430467617475166,-0.08762637676281351]},{"bias":-0.38078797322860475,"weights":[-0.39936324905666043,-0.9844489140622976,0.20405136286500064,0.539896393489432,0.09771482012307048,1.1224344589127422,0.644165519039182,0.560938113033142,-0.13802119686311026,-0.7154418881326683,0.3045826475825331,0.6600677819122557]},{"bias":0.26070726695980506,"weights":[0.14475066280421472,0.3640206470635774,-0.02439997683894045,-0.4554353611725278,-0.28767713265691286,-0.6318337589148816,-0.32347239077333395,-0.16329276808599583,0.027975431059066625,0.18388888895580105,-0.3778810620823287,-0.2044364913735593]},{"bias":0.12415204018932889,"weights":[0.06825380691791952,-0.2793393346325216,0.1616655114058749,0.20164221851315942,0.06291133247861655,0.21544557286223728,0.19480052538477508,0.288471939838048,0.228982319061923,-0.25341703584789266,0.09518581679064642,0.22590724885236912]},{"bias":0.7360106902730135,"weights":[0.5756643662208983,0.924168483610103,-0.4465650629427717,-0.6740315055023663,-0.032576983030255496,-1.2593572362301864,-0.6989392012068534,-0.4363588374028325,-0.04108305656394752,0.9392915596057576,-0.48397550217441293,-0.7517762795374284]},{"bias":-0.24979207829002642,"weights":[-0.11246094074042498,-0.12970306760843978,0.24619094532370236,0.21861661505793006,0.08337965770134971,0.5913595346061031,0.3425883158851523,0.1442897865751245,-0.07103802868799512,-0.2873170657361448,0.3407364266859003,0.16565488615980026]},{"bias":-0.02113261610207522,"weights":[0.04360224231586002,0.1680980458385446,-0.14721904354817025,0.1291597122139955,0.12734673587699974,-0.06732572965725078,-0.17601869867096936,0.05482873197909972,0.09399342572921043,-0.098714499298137,-0.01455911554759764,-0.18136895512594128]},{"bias":0.6039348781922628,"weights":[0.33662655592910723,0.6369560790115534,-0.0886588953872037,-0.6478721366266386,-0.2557689041147739,-0.9986798803967945,-0.5954512374318964,-0.31601737293204674,0.040485801432065066,0.7379106318945187,-0.400464802490446,-0.5217836415118743]}],[{"bias":0.04412418400948454,"weights":[-0.3915150525630084,1.3481971288448598,-1.996331100337733,-0.7855646219174452,2.520723911630487,-1.3087874353632765,0.7425977641655798,-2.8515727614364463,0.9960969029187174,-0.05524761501904635,-2.1876610135177725]}]]