[[{"bias":-0.04116013727410284,"weights":[-0.11363132189744994]},{"bias":0.02191833095855583,"weights":[-0.04686614012381157]},{"bias":-0.1416203650432274,"weights":[-0.01572081817196186]},{"bias":-0.10814667257372923,"weights":[0.0775910820403129]},{"bias":0.015138724134631854,"weights":[0.19068064075582047]},{"bias":-0.00998883744000248,"weights":[-0.04851998733433174]},{"bias":0.12991171146099634,"weights":[0.12978565100066808]},{"bias":-0.006117988014992803,"weights":[-0.04964908243194327]},{"bias":0.06351057123680981,"weights":[0.18622606016003812]},{"bias":0.01456535879633511,"weights":[-0.11522987340527485]},{"bias":0.11500751406194942,"weights":[0.16245569284635092]},{"bias":0.03217074716464782,"weights":[0.18302337464526047]}],[{"bias":-0.13257249404334978,"weights":[-0.33873760978753265,0.3964479922352807,0.12378963491686132,0.09099512739636381,-0.25736838687067826,-0.10898393705294242,0.19440187801381548,0.1184073235275778,0.34940535264848444,-0.10177223281723204,1.2575320440346196,0.22985161709576488]},{"bias":0.5502320898641688,"weights":[-0.13003178728610962,0.06025044189263699,0.035004759072922914,-0.6221691940681392,0.3614141573452405,0.6300318736704132,-0.7847894760811377,-0.03703699654703256,-0.039608705126772115,-0.26046161229129855,-1.327821126578326,0.11105094789850671]},{"bias":0.7922736537517845,"weights":[-0.004751794080956555,0.06782271736140123,-0.04628891613264374,-0.932449400650547,0.6427307107874314,1.0926226410816124,-1.0043840589901054,-0.09428067492844952,0.08383960351142704,-0.15784013111279419,-2.0457449199621394,0.1874322150303187]},{"bias":0.15742491407951792,"weights":[0.021475394642381886,0.06173996004373623,-0.19438099447707438,-0.033060267505738476,-0.20380989371263147,0.1053024331016712,-0.010276656516735221,-0.08761801748478622,-0.09149761127940177,0.11161887648803187,-0.3925490007025977,-0.17199758091410322]},{"bias":0.007287432901557181,"weights":[-0.06663077801773051,0.03298301115733346,0.10469357101883559,-0.3828347034947833,-0.1736312415343137,-0.10158098798896496,-0.387993756909082,-0.17546468729860026,0.16254995672774467,-0.271892557832576,-0.07870409216389188,-0.10539099296585541]},{"bias":-0.8438753611910041,"weights":[0.03226082317296223,0.07922224198807602,-0.16744903909325176,0.8956992880070288,-0.5749073890959039,-0.6429858914529935,0.7154748386212101,0.09351539445902265,-0.0008275887632424069,0.17561811006473368,1.5762547450151065,0.08142438773869728]},{"bias":-0.26442282086701235,"weights":[0.2279879809876355,-0.12625224904565147,0.13855634180204396,0.5539264001766927,-0.16483308973690658,-0.012812652773155776,0.36614128578742,0.1608186809079345,-0.12134454412034607,0.07155851079553452,0.7258905564010483,-0.06832801251582478]},{"bias":0.20155984250860237,"weights":[0.24107813879487297,-0.19401133956525154,-0.07097522562587133,-0.23137300172464725,0.12946634101238555,0.39207386183767146,-0.40494112097131246,-0.17397369707848165,-0.27331507056765,-0.024102475719835224,-1.3204338222010197,0.11308284106389302]},{"bias":0.9338922453226417,"weights":[-0.02922981616978374,-0.047657900473225184,-0.030574580076000696,-1.058330890239271,0.7444027185702853,0.9307187611707604,-1.1252662584832684,0.12734861460956592,-0.060225367711289106,-0.04074734238445291,-2.0828522950768122,0.23024880531202813]},{"bias":0.6178263398442551,"weights":[-0.13974674846890295,0.15827915484589902,0.13233899072100255,-0.9655250171150238,0.5213081731344461,0.7739425434709986,-0.6849728987538317,0.043630292857629274,0.12373031300406337,-0.22433695650549676,-1.6295448452883443,-0.1051178990879879]},{"bias":-0.14485115379299054,"weights":[-0.08875742605346072,-0.17586483905694028,-0.06274451615887179,-0.3884550958462344,0.20165827252038862,0.16236407686596885,-0.2621066514612083,-0.12007667458847052,0.10097129094598781,-0.09310659091941408,-0.44587389290882584,-0.2039678573375582]}],[{"bias":0.7106137834430499,"weights":[1.9476563705322036,-1.9598084375776808,-3.048302044951559,-0.17909366486561565,-0.36014051421580606,2.9204605951532105,1.5183762892450916,-1.6045147508271531,-3.1279845893902474,-2.385809574584388,-0.6338222568236072]}]]