[[{"bias":-0.1600116686639752,"weights":[-0.009407568162695418]},{"bias":-0.1705797584823152,"weights":[0.13890265149613834]},{"bias":0.07251820161707095,"weights":[-0.013201397057021058]},{"bias":-0.06757213991020877,"weights":[0.14177422468940393]},{"bias":-0.04415520612976245,"weights":[-0.05370883026510828]},{"bias":0.006508055188982176,"weights":[0.18164411624299898]},{"bias":0.08827970967593235,"weights":[-0.19062575194108736]},{"bias":0.05938075499497969,"weights":[-0.022286989386407635]},{"bias":0.07884746396609643,"weights":[0.08075573363200989]},{"bias":0.10764173425625784,"weights":[-0.04804929806900066]},{"bias":-0.09279849018139404,"weights":[-0.11056217354142871]},{"bias":-0.03438246609990009,"weights":[0.16492371884012452]}],[{"bias":0.8461273231857382,"weights":[-0.14893787686258322,0.10736469885440673,-0.6810156387569831,-0.3657369161053689,-0.46587693419876725,-0.07871093992533978,0.93782888437893,-0.19845386145127844,-0.5222851578601863,0.11202999271093106,-1.0328532640912242,-0.43517950069163197]},{"bias":0.012215769824626981,"weights":[0.229806107334144,0.020475757011779047,0.4260879979901506,0.18001632094508213,0.271096350670411,0.052034917596601934,-0.13370149162327863,-0.07680416870891894,0.013986195749773458,-0.05444368333633893,0.4757093978719338,0.307759828765877]},{"bias":0.35593785372184183,"weights":[-0.2983993487604757,-0.09462029937709128,-0.31779638456127585,-0.47319125003793194,-0.22076294564534757,-0.24731010335478,0.19258368477980728,0.1321614773469923,-0.2705847788699823,-0.022632458944461486,-0.5776998121458466,-0.11159150517222965]},{"bias":-0.10979508988500408,"weights":[0.13871343645918777,0.0667361432911095,0.41780650470363656,0.1377393881085518,0.34286523530658813,0.12399915520037827,-0.04649737429179871,-0.03428164945255617,-0.0026620557501716292,-0.046717784435965914,0.23487528838281369,0.14161985923634493]},{"bias":1.0760946210850433,"weights":[-0.47614594317920006,0.28584178833301876,-0.7300800532523257,-0.49361553898174,-0.4732968660281357,-0.10131152550811327,0.7914802650345437,-0.053683806511008264,-0.5229357526525648,0.0723141772000551,-1.1560429221716264,-0.263240436705075]},{"bias":0.7680583618529464,"weights":[-0.23935502989617471,0.12523536014359146,-0.762961106599991,-0.5233595949103773,-0.25302223200732404,-0.16727751891224737,0.7410599974673464,-0.016299768557206832,-0.38103251943350497,0.14047840285365903,-0.9215156387284689,-0.3285693779114839]},{"bias":0.736211899072176,"weights":[-0.2019045654426108,0.19589828132455794,-0.7631838780193577,-0.3420591279610009,-0.4791698706247863,-0.09241110033126937,0.5133855472102113,0.03382843786454152,-0.35490047743493336,0.05933484510135741,-0.720548241009748,-0.3825199941106652]},{"bias":-0.5051142313705402,"weights":[0.321735971639886,0.1415661315085364,0.5136094950234035,0.10996036997713453,0.21685534459521558,-0.07051042823745556,-0.3778763586938517,0.0902600205734759,0.2542650494243553,0.19031040060030224,0.8338868892338026,0.31276507523816693]},{"bias":-0.33644999277546,"weights":[0.12851557301401742,-0.07190645315541207,0.4984963380384449,0.2214032308576309,0.43475431589632596,-0.012315612449593238,-0.06995400450875643,-0.04824648602732535,0.29435044961782847,-0.05044356464458951,0.6230728518463254,0.14973715068923982]},{"bias":-0.6798589994438389,"weights":[0.3502695030600775,0.08317360869344492,0.5092490009526381,0.5568283330200833,0.15195182478918814,-0.08881679281679142,-0.39206639883442035,0.14661125558614918,0.5186313489466501,-0.056227818868297016,0.7797642508744046,0.13420373456274148]},{"bias":0.23865437444122745,"weights":[-0.14097452192929524,0.14139463077832506,-0.4095676780823298,-0.45789790887165366,-0.4457199307228155,-0.016264518331578874,0.3975806179313086,0.048294053882368744,-0.16853847244513895,-0.049429720135274156,-0.6469689573227579,-0.25881410125868154]}],[{"bias":-0.17054155905594737,"weights":[-2.3726696924743074,0.9961016547821417,-1.329188408406487,0.6687308753569252,-2.608244700130003,-2.2112645991119795,-1.9304280782158778,1.6025064489048897,1.2384190472593208,1.8006263134174696,-1.4380474776830885]}]]